64 100
AAA -1.1654801 -1.3691778 -0.570175 0.788432 -1.9667329 0.04096697 0.7274876 1.0232753 0.32357317 -1.1003724 0.59302235 0.3869721 -0.56137043 0.22869486 -0.5705728 -0.043462884 -0.16411632 -1.1261734 0.37057015 0.33571473 -0.026010385 1.3560377 0.35142583 1.4190248 -0.00735391 -0.88211256 0.22019666 0.88642746 -2.1406333 0.1092269 -0.21216847 0.55991614 -0.14814702 -0.89981025 -1.2351912 0.5771568 0.10587942 -0.13636507 -1.6730114 0.79253286 -0.20269215 1.1526265 -0.9875642 0.2876308 0.7316624 -0.9902568 0.30042687 -0.4068751 1.8483375 1.4568923 0.6929234 0.25877976 -0.25875223 -0.47373575 -0.084415615 0.41244102 -0.6640971 0.0045211962 -0.36549142 -0.44716606 0.7122507 0.6579279 1.2857156 -1.0098825 -0.308484 -0.4169098 -0.1913312 -0.24497466 -0.6347083 -0.14350154 1.898582 0.58761823 0.77458507 -0.39503378 1.732691 0.84649163 0.77945995 -0.13819484 -0.47652632 -1.1353103 -1.1909564 -0.13886063 -0.76081556 -0.5215363 0.15353672 -1.2168881 0.89063096 1.5059543 -0.022777962 0.4474572 0.005311864 0.6273771 -0.69877356 1.3597249 1.9822555 0.096109405 -0.95194644 0.406691 -0.07139013 -0.4666254
TTT -0.75842595 0.81903416 -0.06695105 0.21077472 1.3822883 -0.84563667 0.9177137 1.0115097 1.8108879 -1.1835524 -0.75805384 0.63240254 0.7046983 -0.32326877 0.58403987 -0.27425104 -0.9320712 0.21272478 1.5600224 1.3567133 0.07585569 0.35072353 -0.63083816 1.0353823 -1.2890671 -0.6262807 -1.2303779 0.61170113 -2.0928395 0.44076934 0.35613108 -0.7603109 -0.0138866315 -0.25031635 -0.223557 0.6352065 -0.97756284 0.8883617 -0.42005008 1.1917341 0.787832 -0.020897357 -0.77076364 -0.6338803 0.42336136 0.18701255 1.3548794 0.104505666 -0.16873497 -0.30915564 0.70906484 0.6424934 0.7163537 -1.8558462 0.4365219 0.46996966 -0.2768058 0.74800754 -0.66624683 -0.014494464 -1.2358912 0.6783831 0.35652494 -1.1698798 -0.83058435 -1.2212679 1.647844 -0.17910673 -1.0757416 -0.4978134 0.10678974 -1.0225036 0.3784671 -0.002703868 0.7306894 0.11729588 -2.050369 1.2462761 -2.021246 -0.2449414 -1.6238133 0.64008206 1.279676 1.3929143 0.705502 0.6717681 2.3141637 0.43508303 -0.18197489 -0.15486786 -0.5705351 -0.5364901 0.8987966 -1.7135391 0.38336495 0.13670228 -0.6938168 1.5991865 -0.06278989 -0.6918805
GAA 0.32271153 -0.8662635 -1.6037556 -0.25514907 -1.0953963 -0.11446041 -0.25001073 0.45977184 -0.12006191 -1.1614989 -0.3382937 -0.41523844 0.32048193 0.10242862 -0.39085868 -1.0021229 0.44860357 0.66858006 -0.66547656 0.033568185 -0.19187291 0.6187086 -0.7742789 -0.18711768 1.8498629 -1.5592188 0.6158187 0.55198455 0.1065988 0.2985114 -1.2288941 0.080010936 -0.62134707 -0.08924356 -1.8262373 1.0351456 0.931524 -1.320267 0.14806627 0.3323733 -0.39634982 -0.38019535 0.30358377 0.99199575 1.2247727 0.8387763 -0.15999548 -1.4064643 0.9271191 0.9301025 -0.122474045 0.60750294 -0.8514666 0.43264169 -0.81235266 0.6847797 -2.0776663 0.09521548 -0.39789647 0.4266575 1.1150459 1.8226215 -0.93040997 -1.1317047 1.273025 -1.4461602 1.1239613 0.29035345 -0.017843354 1.654402 1.7397418 0.5636849 0.20636143 -0.065290034 2.3119972 0.51948124 1.2668227 0.72104764 -0.2904095 0.21866508 0.37225592 -0.14107752 -1.3763165 -0.45452958 0.563365 -0.47102797 0.061020747 -0.17622821 0.69291115 0.942178 0.5358164 -0.6760782 1.263889 0.9053088 0.71721333 -0.2192018 -0.32574758 0.106621064 0.22441553 -0.4608456
GGG 0.22194816 1.4258668 0.291362 -0.5346752 0.023510017 -0.026590744 -1.0865914 0.34265098 -0.4627512 -0.65022373 1.8481247 1.0067225 -0.41378513 -0.94262105 0.45656475 0.19378875 0.002030998 0.226797 -2.4316986 -1.1964011 -0.6488556 0.6682855 0.23594046 -0.14739713 -1.6223377 0.6678932 -0.6261234 -0.31821832 1.2327362 0.30787915 -0.43647146 -1.2160513 -0.8179277 1.4061196 0.83842593 2.6362214 1.6692915 -2.184532 -0.19484574 -0.83792686 0.1694095 0.839427 -0.020649364 -0.19938757 0.0010202663 0.2801167 0.13488482 -0.5481559 -0.60854334 -1.3934629 0.12344993 -0.5760463 -0.3119681 0.33234525 0.10854779 -0.8704955 0.35136732 0.84093267 0.6143205 -0.32870224 0.62773097 0.17960297 0.9697568 0.42094284 0.23798418 -0.1320187 -0.7043662 1.5513585 -1.527458 0.044661805 -1.1549075 1.2872151 0.97353655 1.4487714 -0.20191222 -0.25275403 -0.17530556 0.180401 0.38082743 0.110740975 -0.21321853 0.578249 -0.90019023 0.6564276 -1.6626621 0.41019994 -1.4759802 -0.91363084 0.36049268 -0.1580927 -0.048078142 1.1598115 0.37141898 0.6849073 0.8785931 -0.4924144 -0.5942444 0.8863522 0.30320346 -0.36522666
TGA 0.16533272 -0.09525131 0.33737853 1.6955867 0.5368659 0.057304647 1.477937 -1.0778317 -1.7286761 -0.35906467 -1.2127033 1.021537 0.34502298 0.44571266 0.36715505 1.1708782 -0.17502043 0.36782223 -0.18471463 0.5806785 -0.7666588 -1.6470696 1.3377608 0.059085272 -0.16778037 -1.00965 0.3110303 0.9562358 0.058673456 -0.39715105 0.05446405 0.094951786 0.814179 -0.48704565 -0.3546709 -2.0139472 -0.5082984 0.84573287 0.16907085 -0.4474986 0.94038296 -0.3122889 0.8015396 0.29913867 1.5072722 -0.2957522 -0.12482086 1.2925317 0.75838304 -0.29937458 1.7097425 0.06257378 1.1066468 0.24245004 -0.8707579 0.12216243 0.89782846 0.3830783 0.1188583 -1.0149467 0.7253706 -0.25308058 -0.15406562 0.8367897 0.04972209 0.46558443 0.818971 0.73821694 -0.68540967 1.4228802 -1.0212865 -0.30204448 0.71274424 0.7880501 0.034492034 -0.07974945 -1.2144474 0.7265311 0.16689286 -1.7273979 -0.34551224 -0.9807767 1.3384167 -1.5146793 1.1527591 -0.41650376 1.9201363 0.7871868 -0.57813805 0.8971415 1.4263523 -1.2766874 -1.6927644 0.7665934 0.8489548 -1.6433103 -0.30763343 0.31305546 1.432614 0.13200763
AAG -0.4511105 0.16997291 -0.7575273 -0.41428727 -1.1836197 -0.20302351 0.18885359 1.349971 -1.4744302 -1.2585037 0.6267237 0.49404293 -1.0965517 0.207451 -1.4347653 1.5917848 -0.00905853 0.5941302 -0.60561264 -0.3495213 -1.7336472 0.40491077 1.3216935 1.3091598 -0.68022144 -0.4451993 0.20441128 0.3061654 -1.1004478 -0.38644785 0.958505 -0.31852236 -0.46266392 -0.7620352 -0.39609253 -0.10235808 0.73617965 0.18090566 -0.34872338 0.31205153 0.9877614 0.68460554 -1.9403788 -0.650454 0.07463212 0.25782564 -0.3236163 0.24585213 0.5626948 0.11843319 -0.550884 -2.0326986 -0.81767493 1.1783073 0.026375396 -0.3150125 0.5106907 -1.5094641 -0.25061953 -1.4893954 -0.22151473 -0.3186845 1.7583953 -0.5611086 -0.14019457 1.6597856 -1.0971119 -1.237439 0.5949287 -1.8879143 0.54678464 0.33831796 0.2425322 -0.49898705 -1.552887 1.1161238 -0.48279306 -0.865234 0.6915463 -0.2292442 0.5588266 -0.8780565 0.3208667 -0.6217306 -0.2936969 -1.3491428 -0.50690144 1.0261744 0.0961778 -0.17170504 -1.1988101 1.8682215 -1.3725688 -0.2664695 1.6092557 1.085417 0.31544557 -1.5390251 -0.33961216 0.60064423
GAG 1.2566794 0.7314037 -1.2660365 -1.782006 -0.1483756 -0.71806556 -1.0433013 0.66901207 -1.4782274 -1.2391309 0.27784348 0.23680294 0.23125178 0.577575 -0.80272806 1.0738794 0.66772133 2.4061048 -1.3982885 -0.8007909 -1.073187 -0.6930027 0.117679276 -0.60974205 0.5953296 -0.74619764 0.003923923 -0.21244389 1.4175556 -0.063684925 -0.26888454 -0.44538212 -0.91226244 0.16185693 -1.2401828 0.92736644 1.4162766 -0.57476366 0.8502358 -0.7650948 0.99618983 -0.46342468 -0.07259297 -0.3496998 0.43731382 1.9063857 -0.548356 -0.5831181 -0.88706446 -0.4098252 -1.3948754 -1.2980807 -1.8549303 1.2857245 -0.77820593 -0.7873315 -0.90245765 -1.2151117 -0.38751847 -0.72525716 0.29100907 0.52842295 0.48522726 -0.46834067 0.80778646 0.6829596 0.5389097 -0.9412285 1.1505427 -0.759666 0.12176018 -0.23881786 -0.037974104 0.3983682 -0.24404344 0.16714978 -0.034909815 0.21030177 0.051254243 1.1067832 1.8218184 -0.51483697 -0.5164586 0.20872445 -0.2590734 -0.17588429 -0.33031583 -0.4972199 0.61791587 0.17372067 -0.47609565 0.71633 0.71113515 -0.57210034 0.81620705 0.8815405 -0.1762336 -1.1732255 0.14600718 0.6368336
AGA 0.4349816 -1.0467516 2.0527112 1.7759889 -0.54987127 0.944719 -0.5420058 -0.40376455 0.08910218 -0.4409308 -0.27150816 1.3087109 0.7988058 -0.46525496 -0.6011777 -0.076777644 0.73037493 -0.3823868 -0.5122912 -0.31053486 -0.34048542 -1.0109432 -0.26724178 1.2888261 0.65788925 0.8336593 -0.17066847 2.1898808 -0.31084013 -0.37115026 -0.46286365 0.51392835 0.36446908 0.43527135 -0.80127203 -2.2247782 -0.7592879 -0.66285664 0.09977513 0.79743594 0.10641312 0.14931227 0.9401203 -0.29162583 -0.668982 -1.1658913 0.99090064 0.9606336 0.25273293 0.48752135 0.47525135 -0.07338757 0.67682743 1.5733656 -1.0989792 0.4323074 0.5013132 1.2116053 0.52121246 0.315107 0.9953453 -0.24889994 0.78588396 0.5102134 -1.1375698 -0.426722 0.30181584 1.1854937 0.9892296 -0.5966687 0.83126956 -0.41878432 0.63598657 0.20283708 -0.011179918 -0.096274234 0.7420429 0.46458173 0.5281615 -0.84343964 -0.7494095 -0.8912856 -0.8772363 0.71485835 -0.49925423 -0.4842473 1.9261179 0.93994725 -1.2403222 0.31325874 -0.5331862 -0.55911654 -0.43791768 1.3617109 1.5622988 -0.76280385 0.07796307 -0.22662917 0.7982184 -0.27191287
TGG -0.531967 0.9481157 0.24755102 -0.12976372 0.9970302 0.354488 0.31962538 -0.09918396 -1.1782393 -0.23638105 0.7432138 0.76788473 -0.11041873 0.32116687 1.0528886 1.5154951 -1.1533273 1.5776595 -1.0327688 0.3922395 -0.7186587 0.51115245 1.3135793 0.064313754 0.31465834 0.19506621 0.41095686 -1.2170736 1.1285181 -0.78048563 0.06468849 -0.19336192 -0.38296205 1.1198734 0.7846157 -0.433831 0.7063996 -0.3193676 2.2401202 -0.9746223 0.089723065 0.21450844 -0.27887475 -0.74723315 1.2125571 0.04788471 -0.103875086 0.116750486 -0.7110426 -1.926164 1.6605449 0.7524274 -0.7702224 -1.135477 0.12765245 -1.215229 0.14824976 -1.3647218 0.1933189 -1.1740046 -0.29551864 0.40988243 0.96064514 0.71981823 -0.77979594 0.023443095 -0.08902719 0.24270639 -2.7887883 2.344651 -1.760857 -0.16211051 1.3874135 2.054365 -0.40537784 -0.5523123 -0.8538132 -0.36987573 -0.719014 -1.0931138 1.3163762 -1.5356851 0.43584868 -0.09355275 -0.39116374 0.37377837 -0.15512247 -1.079488 -0.87110156 0.25119656 0.60813904 -0.64922285 -0.18600865 1.1565704 1.5046206 -0.22471228 0.30542436 0.5190594 0.3907471 -0.6979704
AAT -1.8006852 -0.066119686 -0.85566014 0.37397128 -0.99773306 -0.84833604 0.37897077 1.6412585 -0.8471537 0.8301286 -0.4855178 1.5710865 -0.6366479 0.6382421 -0.05874247 0.67831457 0.46548676 -2.5706093 0.7802378 0.48525637 -0.37838882 1.3472018 0.009851263 1.0324476 1.0860195 -0.9607843 -0.013815394 1.4589251 -2.5713923 -0.27773124 2.0139117 0.40664044 1.2386023 -0.7191061 -0.3228757 0.022552168 -1.1428381 2.2551894 -0.6946171 0.99160385 -0.27157682 0.9268513 -0.9674757 0.07647907 -1.1838986 -1.1623677 -0.595592 2.4294596 1.1246303 0.4243097 0.5153537 0.4711114 -0.38752806 0.27780437 1.7689196 0.2871495 0.47958928 -0.8891772 0.99702907 -1.2587746 -0.13920452 0.1026205 0.9449368 -0.31237406 -1.4770744 -0.10781135 0.7651777 -0.9726523 -0.09444886 -0.4269442 1.1498909 -0.3237023 -1.168477 -0.95924026 0.30261672 0.32931224 -0.90151274 -0.5553731 0.64475876 -0.5411538 0.21520643 -0.24424127 0.64052993 0.65911555 0.6449735 -0.5359085 0.34382072 2.0080817 0.55170405 1.3238394 -1.1519213 1.6101255 1.0961819 0.6720568 0.36376703 -0.38682854 -0.91219664 1.5820113 0.4556189 -0.07807273
CTG 0.43527457 -0.17466252 2.0165672 -1.0595033 0.25354245 -0.7575281 -1.1176327 -0.73651105 -1.6826675 -0.6809817 0.16143279 -1.2092956 0.06016337 1.3877836 0.9874151 -2.651758 0.15634319 -0.3638334 0.46590915 -0.3783094 0.57289016 -0.16060139 0.46977347 -1.3250821 0.39368987 0.20205744 -0.37276062 -0.50031227 0.38199362 -0.52449507 -0.14898084 -0.5679334 -0.45313713 1.0845454 1.0381013 -0.43406725 -0.32857618 0.60134256 1.1725119 -0.05820771 0.55623233 -1.0848995 0.018048573 1.5168356 -2.1889982 -0.19412045 -0.89509106 -1.0605869 -0.20524508 -0.87901706 -1.4001621 -0.4063921 0.56781656 0.7792478 -0.10754149 0.47829503 1.916688 -0.18431784 1.4668373 1.3457688 0.39144087 -1.0362321 1.3664687 0.71448135 -1.4538813 1.9307693 -1.1615039 0.43846118 -0.1779197 0.7387462 -0.8961482 0.81227005 -0.0793228 0.42212385 0.7479174 1.5002927 -0.30703261 0.016730826 -0.5230963 -0.07671313 -0.889395 0.1705621 -0.7653659 1.6582087 -1.1589098 -0.22080626 0.18975596 -1.0337992 1.405268 0.80094427 -0.10571009 0.68331164 0.14785472 -0.93313396 -0.2429039 1.6524936 0.7236008 -1.3795507 -1.2264676 -0.17809393
GGA 0.43663672 -0.027487068 0.47495866 1.6500412 0.43817627 -0.63338417 -0.72795624 0.06709418 -0.3160796 -0.31396824 0.4066484 1.6402264 0.21719487 -0.5065727 0.06610843 0.09697893 0.7840684 0.036631122 -1.8408774 -0.7102435 -1.0253434 -1.776207 0.44203976 -0.46260798 -1.8858778 -0.6714181 -0.67532367 1.5784565 0.6215795 0.20643169 0.053460997 -0.80852926 -0.32926175 -0.15033732 -0.3862134 1.0421013 0.89149624 -0.47398677 -1.3217381 -0.78043175 0.904205 0.96952534 1.3007153 0.042140245 0.19023497 -0.21849887 -0.2340229 1.2022163 0.78118896 0.060799696 -0.0005350023 -1.0997525 1.8598341 1.503683 -1.2840824 0.6241358 1.1372305 2.2320979 0.99842227 -0.3020124 1.7122933 -0.6636151 -0.08312387 0.44080886 0.78400457 0.3149598 -0.43495217 2.1161027 1.098816 -0.6994816 -0.69970304 1.321868 0.4231944 1.0009012 0.0131811015 0.11538458 0.05551699 0.89025694 1.2655101 -0.77709764 -1.4596988 0.95778537 -0.8719011 -0.56521314 -0.070939876 -0.35700515 0.15849 0.43687955 0.5443045 -0.14155222 1.0004778 1.030763 -0.61114305 0.56359726 0.4498543 -0.85876113 -1.6553427 0.0015703327 1.0359238 0.4157244
AGG 0.40665177 -0.33655778 1.2262352 -0.46287444 -0.7781154 1.9851402 -0.9481267 0.030465553 0.15564619 -0.61404634 0.9937092 0.18700042 0.08977066 -0.7672145 -0.25088343 0.5805662 -0.20216808 0.11007928 -1.5588642 -0.9965363 -0.48209146 1.3900834 -0.4672505 1.4371938 0.8920799 1.9055032 -0.019739008 0.65085435 0.5969959 -0.6855325 -0.6723842 0.13240597 -0.16585219 2.0729947 0.17919397 -1.0011293 0.60554135 -1.7526551 1.2924525 0.51880574 -0.7794602 0.74906117 -0.2874944 -0.8895132 -0.94306934 -1.3095171 0.99257755 -0.3321706 -1.2265471 -0.27988112 0.493485 0.006914522 -1.0770869 0.5148847 -0.28248423 -1.0759189 -0.113137394 -0.624659 0.68761694 -0.11429621 0.07297503 0.80134183 1.8603979 0.7241854 -2.1282437 -0.18749239 0.01911032 0.9174513 -1.4902986 0.8575742 0.33639756 -0.09548802 1.0865314 0.91986674 -0.47621223 -0.36239058 0.84352714 -0.9173145 -0.019552097 0.09358631 0.7129344 -1.387395 -1.188746 1.4973052 -1.6825962 -0.08166067 -0.44871143 -0.76554453 -1.3410763 0.5917066 -1.6029276 -0.17525396 0.8562919 1.2890283 2.1040041 0.22633365 1.2444239 0.48204756 0.11413809 -0.8145042
GTG 0.68999475 0.17387603 -0.5193037 -0.12501636 -1.5117863 -1.2642661 -1.1358972 -0.8254416 0.08391055 -0.42842367 -0.9432599 0.40500507 -1.3914132 0.9358132 0.16325915 0.76761466 -2.12008 0.452727 -1.1165022 -0.20532484 0.5735932 0.9002754 0.25094047 -1.205305 0.39311954 1.0851117 -0.6904982 0.11251215 0.09239678 0.16476753 -0.22578552 0.12848839 1.20697 1.4130117 0.015192641 -0.34121266 0.0634546 -0.69826525 0.18132977 1.3489707 -0.3450017 0.4528569 -1.013132 -0.38613394 0.20416008 -0.13770732 -0.027555313 -1.031225 0.48777735 -1.4465702 0.085143216 -0.9388654 -0.2121898 1.7305778 0.03886442 1.0950639 2.482703 0.08212271 1.5771646 1.4375471 0.8956934 0.62463456 -0.64705646 1.2247771 0.41165784 0.7179088 -0.97990716 3.1842396 1.2413459 1.7528177 -0.58052105 0.18424486 1.0455978 0.28699222 0.7048839 0.62477785 -0.48715055 0.348521 0.88695246 -0.96263677 -0.6149461 -1.3477259 0.13198876 0.7977917 0.07851759 0.43659657 -0.6040393 -1.6292988 0.98843145 -0.48754805 -0.44756952 1.2338246 0.9909097 -0.87832767 -0.4198705 1.4865412 0.60997903 -0.35629788 -0.22700056 1.3884976
CAG 0.9807274 -1.3632753 -0.37185985 0.1528283 -0.016845435 -1.2401133 0.12396223 1.2546517 -1.83869 -1.2847159 0.7175555 -1.5673398 -0.24871849 0.67791486 -0.510438 1.5844474 1.0956187 0.7437599 -0.7192671 -1.5567021 0.5813417 -1.2805703 0.81996506 -0.37138754 -0.023448197 0.3943975 -0.5425364 0.0845513 1.4580474 -0.43348062 1.1590079 -0.6235997 0.18715502 -1.9214326 0.5115613 -1.6164602 0.88398546 -0.43529496 0.919415 -0.91937333 1.6940401 -0.86127734 -2.0045733 0.09666578 0.8701871 0.9149598 -1.4857022 -0.58284044 0.07717574 -1.1105435 -0.3687526 -2.1626048 0.4836208 0.25906506 0.32379574 -0.2696081 -0.059677422 -0.0248348 0.36999947 0.91660184 -0.576728 -1.8284361 1.7740223 -0.65551335 0.21127008 0.051498476 0.4555514 -0.91631216 1.2641798 -1.3215555 -0.7984266 -0.069870174 0.30518404 0.29844528 -0.598494 0.53078467 0.34358934 -1.4327332 -0.3441213 0.64236486 0.051720884 -0.30466595 0.7434404 -1.0321672 -2.2767055 -0.5600929 -0.6891847 -2.0460281 -0.13446385 0.25060454 0.93083924 1.0005372 -0.34780928 -0.06556602 1.0907531 -0.6627293 0.6815577 -1.0938573 -0.18990049 1.3669916
TTG -0.15453051 1.1563777 1.0082506 0.16433688 -0.29492512 -0.9111209 -0.984655 1.5923066 0.39460543 -0.6063153 -0.77778506 -0.8846894 0.9103219 1.508019 0.25921434 -0.53068644 -1.2932109 0.8747695 0.54567933 0.6877992 -0.48575583 0.99386054 -0.71102655 -0.07118802 -1.273596 -0.13318959 -1.5912601 -1.2092109 -1.550464 -1.0855196 0.5802774 -0.40044278 0.77885836 -0.57663316 -0.40280437 -0.117551476 -1.5981394 -0.5194934 -1.6980873 0.51907074 0.08270956 -0.5724207 -0.7676969 0.34830186 -0.15756367 0.9917404 1.6729609 -1.0345273 -1.0909292 -1.0997559 -0.46670622 0.21091662 0.78990084 0.2698 -0.042169485 0.08171576 1.624801 0.2467565 1.1114582 1.0729033 0.39056173 -0.16396454 0.09477151 0.1388283 -0.90704685 -0.83483106 -0.22989269 0.5077862 0.7143305 1.5544578 -0.2665188 -1.2885702 0.043885 0.20534417 0.21974671 2.3559878 -2.1183999 0.49205756 -1.0734504 -1.4060549 -0.54768693 -1.2208669 -0.5014182 1.6879003 0.13854122 0.5397898 0.97416985 -1.0727599 0.88573635 1.3454806 -0.7302378 -0.10973551 -0.826288 -1.905083 -0.32773063 2.0366814 0.08423338 1.1508625 -0.54723173 -0.076985
ATG -0.7721842 0.084759176 1.5311188 0.6240798 1.0877742 1.1782755 -1.2425234 -0.15480009 -1.1653812 1.161617 -1.3901733 -1.6524913 0.19831905 1.5832257 -0.5402344 0.20593616 -1.1588314 -0.05575527 1.0399389 -1.7745272 0.42251816 0.3382948 0.72384083 0.68137574 -1.0781578 1.497288 -0.9359263 -0.60835 -1.649162 -0.001864228 0.45688012 -0.40699342 -0.17038904 0.24788867 -0.47816804 -0.7829386 -0.7060466 0.4409783 -0.48066258 0.5747906 -0.5479089 -1.1149817 -1.4959818 0.96979094 0.14387569 0.68594867 0.0023821457 -1.1507683 0.3526613 0.46217686 -1.0076866 -1.2535346 -0.34798586 0.65741676 0.33245888 0.73052704 0.0018849261 -0.8917648 -0.6059204 0.20950867 -0.34783784 -0.03584699 -0.56090444 0.82874125 -0.24125749 -0.41240352 -0.73591775 0.65618265 1.7368741 0.7942546 1.3265551 -0.9767787 1.4035189 0.8012359 0.03456695 0.35880944 0.15622318 -0.28506187 0.71473837 -1.4795924 -0.62787294 -1.7386134 -1.7199522 1.1331774 -0.396789 0.035418533 0.35382637 0.42693675 1.1034759 0.093296446 1.3696209 0.25546637 -0.10474696 0.13387196 -1.3598747 2.5266876 1.0183312 0.15068239 -0.70680594 -0.026993422
GGT 1.0958047 2.2248838 0.8485883 0.71208906 0.26180825 -1.5906769 0.33769596 1.083619 -0.121185035 -0.43749186 0.55287105 0.043281022 -0.31478447 -2.1675816 1.1558801 -0.3726639 -0.2763818 -0.91748077 -0.56292206 -2.0208738 -0.8238545 -1.1376708 -0.98525935 -0.53684264 -1.9973356 0.5200115 0.18916145 -0.33505425 0.47423118 -0.030661391 0.68928045 -1.8564698 0.36688742 0.19809788 1.4555359 1.9779947 -0.3784725 -0.1934432 -1.0287155 -2.0063212 -0.45729372 -0.54564494 0.5601773 2.0256517 -0.21065062 -0.8330421 -0.19057767 -0.25023165 -0.98993194 0.5188473 -0.82238775 0.60957134 -0.15428355 1.0501873 -0.2468385 0.36151448 -0.7202201 -0.46044943 0.1047602 -0.2814972 -0.4648271 0.39043003 -1.1664718 -0.13413154 1.038513 -0.01388301 -0.026750928 2.2311587 0.628261 -2.5163386 0.18520641 1.5041097 -0.42457914 1.5253211 -0.21262452 1.3300549 0.5304917 0.7560042 1.2996722 -0.17634745 0.45570472 0.91449183 0.021626612 0.16721804 -0.061926104 0.21347971 -1.2295154 -1.263734 1.4888791 -1.0354614 -0.5769731 1.5148982 0.31865937 0.8533159 0.17872413 0.58219725 -1.1237866 -1.1548295 1.083878 -0.78553444
TAA -0.5213768 -2.0719345 -0.41476107 1.2896718 0.009980351 -1.2148421 -0.14962174 2.5428853 0.7021266 -0.41105318 -0.8761849 -1.0999801 0.9727135 0.45844692 1.8835492 -1.3045341 -0.9288408 0.11750508 1.5270618 1.1806897 0.5545137 0.22251041 0.55602306 0.30730724 0.36464897 0.4890292 0.1734723 0.80155724 -1.357563 0.868579 -0.5432036 1.0858977 -0.676496 1.0424479 -1.1126472 -1.1011881 -0.97917455 -1.1787192 -1.1454554 -0.44408873 -0.6528683 0.790657 0.8870796 0.23919024 0.23553567 -0.25263056 0.863812 -1.0517496 1.1772298 -0.4835301 0.9054625 -0.9350271 0.48263285 -1.1013645 -1.833091 1.0937341 -2.5664797 0.34367353 -0.62960327 0.6924202 1.5312576 1.6254754 0.8126816 -0.110186994 0.64032656 -0.27450368 0.5924106 -0.17594083 -0.754117 0.8853289 1.1862465 0.33052406 0.3151656 -1.4552412 1.459441 1.2862259 0.5038735 0.41534355 0.012538837 -2.5290222 0.50837374 -0.4987847 -1.467659 -1.3740933 0.66969395 -0.4628967 0.35773417 0.39404038 -0.6022115 -2.227547 0.86082035 -0.98139715 -1.6892661 0.9152757 -0.04112333 -0.9750121 -0.1961148 -0.19017988 -0.19441272 -0.47915554
GGC 0.89051014 0.7457377 -0.5545791 1.6171094 0.22738759 1.5728538 -1.4703157 -1.5991838 0.21618764 1.5556155 1.0801785 0.6993713 -0.2886161 0.016192533 0.11187024 -0.037287697 -0.2773575 1.2673188 -2.4105783 -0.08557377 -1.5910758 0.23738343 -2.1705248 -0.47529417 -0.6048593 -0.2980935 -0.12098737 -0.45012984 1.8405931 0.20692079 -0.65677696 -1.5582184 -0.058441162 0.7700137 0.28553027 3.163739 1.0847943 -0.87589943 -0.2331143 -0.9113615 0.75427276 0.69510704 -0.022021798 1.2089891 -1.1339014 -0.09551268 -0.3046137 -1.0123954 -0.072329774 -0.171191 -0.23947035 -1.9411716 0.3810382 0.9921339 0.15653966 1.3371358 0.13698183 0.9559758 1.2591864 -0.12443323 -0.6619807 -0.34180674 -0.45705688 -0.28315163 1.5617706 0.41099226 -0.59426624 0.63405746 0.2628487 -0.7683101 -0.6786362 1.2198937 -0.42970043 -0.6443813 -1.1584988 1.065075 0.5539196 -0.088850014 1.4283102 0.64540154 -0.5418759 1.7719911 0.18103759 -1.3715965 0.10953258 1.1439279 -1.627261 -1.9462842 1.6627258 -0.76786757 -1.0615085 0.51808614 -0.5472029 0.47332174 -1.4294015 -0.45342076 -0.43581894 -0.5008075 -0.21808559 1.1423078
AGC 1.1464233 -0.8067452 0.151594 1.4051211 -0.7694181 2.7642546 -0.99844635 -1.7900016 1.201692 0.79920626 0.5174913 -0.6123099 0.83048624 -0.16427958 -0.12967084 -0.32506868 -0.47921652 0.69277006 -1.5651578 0.76292485 -1.2119673 1.3056935 -3.0989778 1.6699439 1.586865 1.0060707 0.24104841 0.09152889 1.5935954 -0.97330534 -0.886686 -0.09795342 0.47916594 1.1131278 -0.4940435 0.14459185 0.45599094 -0.9793275 0.4829102 0.46386245 0.13558318 0.37644282 -0.43896902 0.7928331 -1.8570051 -1.8687317 0.5276951 -1.1007034 -0.42797276 0.9093647 0.48395318 -1.3175657 -0.7112029 1.18382 0.18669279 1.3398012 0.16700403 -0.45496398 1.2709751 -0.1769781 -1.2854761 0.20871791 1.329899 -0.2094818 -0.50426537 0.7443275 -0.12814735 -0.12391877 0.50198334 -0.4922183 0.81522524 -0.33265254 -0.3761756 -1.3590068 -1.3513702 1.4152077 1.2455288 -0.63808334 0.93583363 0.8158865 -0.315406 0.024814848 0.09280482 -0.5529237 -0.05676546 0.61192644 0.43731946 -1.338507 0.05829241 0.30219638 -2.2811608 -0.8059003 -0.107599 1.3618724 0.25585434 -0.4425312 0.92614675 -0.28989023 -0.17252521 0.55698377
GCC 0.4958302 -0.5337857 0.71675175 -1.5795823 -2.314813 0.15683842 -2.3527515 1.0229808 0.8711686 -0.14646368 1.7987117 1.47231 -0.93345517 -0.32482794 0.6197869 0.82803756 1.1544304 -0.8976009 -0.39290124 0.5118142 -0.5226714 -1.0244548 -0.2090255 -0.030880421 -1.3462967 0.61114645 -0.27507123 -0.57914454 2.6874735 0.85794574 -0.37999302 -2.0474553 -0.8601456 -0.5352696 1.6728085 -1.2129941 0.5991739 -2.4356968 0.4226224 -0.32519603 -0.66822153 0.16183987 1.7148358 0.121326916 0.35034585 -0.16551156 -0.56671566 0.13348845 -0.66784966 0.73738325 0.48902664 0.034462154 -0.8596379 1.1469988 1.1735743 -1.1915866 1.2060856 0.47994074 0.31753162 -0.7115953 -1.1887649 0.39422956 -0.58237714 1.9769719 0.6291946 2.2477891 0.43235117 0.23667398 -0.134569 0.50808555 -0.3469131 0.26165965 0.59642285 -1.1667892 0.49269733 -0.3092142 1.5158958 0.406018 1.5820777 2.355071 -0.65651685 1.755418 0.5100125 -0.23419979 0.111756966 0.77024144 -2.1936982 0.03182084 -0.38548794 0.9288442 1.7419016 -1.2830808 -0.04415508 -1.1496552 -0.38795066 -0.008924732 1.365264 0.5960248 -0.75003433 0.67717636
TGC 0.768722 0.48570463 0.014423467 2.2636364 0.43336794 1.3535775 0.22504212 -1.9948863 -0.8707857 0.44974113 -0.09305528 -0.29898816 0.17165606 0.7425655 0.74248236 1.5063585 -1.4435152 2.0522969 -1.4387038 1.4593022 -1.5985278 0.56249565 -1.703695 0.18708137 1.475865 -0.4804753 0.96972716 -0.8531381 1.4276006 -0.73404723 -0.45928988 -0.49201512 0.39895573 -0.012122458 0.28767604 0.69455546 0.080244854 0.26122895 0.8001988 0.0012291219 1.1741122 -0.344377 -0.5056657 0.75952786 0.7101081 -0.41045138 -0.5817364 -1.1169318 -0.028324962 -0.64983433 1.5969226 -0.5554976 -0.65875125 -0.012525991 0.66515106 0.9279232 0.10622029 -1.2271646 0.7406986 -0.96975416 -1.1777917 -0.082947254 -0.3487777 -0.013941648 0.9157478 0.97041523 0.1382745 -0.34427407 -1.6236066 1.6752435 -1.352033 -0.35958594 -0.9159713 -0.67202395 -0.98933846 0.9377256 -0.57092535 0.06648656 0.755076 0.116021946 0.14097103 -0.069289915 1.663024 -2.5229876 1.0234507 0.8664898 0.40100667 -0.9876317 0.64158136 0.025017213 -0.690642 -1.6556337 -1.2165176 0.81161934 -0.8025012 -0.9016055 -0.07000768 -0.27884704 -0.26793405 0.9408839
CCC 0.53055906 -0.17788024 0.09886518 -0.5353322 -1.3443577 0.3950697 -2.0436354 -0.8550872 0.99086946 0.26952997 1.9364713 -0.133013 -0.59226316 -0.06792245 -0.53385156 1.0833694 1.0957592 0.38320276 0.6454467 0.40442944 1.2220117 0.50796497 -0.016794313 1.5714984 -0.81047714 0.6458944 0.45679566 -0.592523 2.0148191 0.8690998 -1.509269 -1.4442881 -0.53600854 0.3218359 0.83737683 1.3659872 1.8663363 -1.1078188 -0.5290896 0.58746445 0.4818479 1.1972762 0.5523968 0.32124114 -1.459725 -0.15325594 -0.7887926 -0.78014517 -0.7612165 -0.08964381 -0.65083224 1.5320281 -0.094680265 0.7618629 0.23996487 -1.2942163 0.41690153 1.0448246 0.38266754 0.63370603 -0.9438882 -0.59806716 1.0029415 1.2392161 -0.57290304 0.1727357 -0.9588387 -0.9029953 0.06926669 0.45554373 -0.56883603 1.3975782 -0.60054827 0.23501366 0.7374914 -0.7539519 0.6632087 -0.0916987 -0.7903596 1.7543107 -1.905076 1.5443186 1.9384338 -0.7859981 -2.4937196 0.9251303 -1.6599082 0.19292928 -0.40715265 0.5918824 1.0404024 -0.08859808 -0.5059802 -0.51875776 -1.0225561 -1.399428 -0.033485416 -0.48334828 0.18348229 1.4458619
GCA -1.2246104 0.46106476 -0.15605645 -0.74749935 -1.8767147 0.079992905 -0.62559694 0.07957002 0.5386841 -0.17021559 -0.094497584 1.9097421 -0.56457597 -0.36202726 -0.42833516 -0.68550295 1.0333816 -0.57968676 -0.93357795 -0.63583165 -1.1845188 -0.8856024 -0.58167 -1.3274559 -0.15451325 -1.4911349 0.6051408 -0.9698322 0.5609908 0.0051172706 0.5561199 0.5261676 -1.0010109 -0.93009484 0.9351543 -1.4775307 -0.58714217 -1.2425969 0.83546585 -1.0057122 -0.710099 -0.39982274 1.1126201 -1.6967828 1.4363946 -1.484912 0.15164909 -0.49905002 1.0940238 1.3794122 1.1594646 0.32623544 -0.74460256 0.8821442 -0.84174913 0.45235097 1.9726344 -0.3921328 -1.5023218 0.4271061 1.2352948 1.2064297 -1.2328173 0.83499306 -0.2876456 2.0945494 -2.3450148 0.5217348 0.85542643 0.9935792 0.35310414 0.4922223 -0.6561416 -0.82413936 -0.771254 0.17625543 0.9656292 0.9220857 0.7627529 0.25715244 0.9147827 0.16583367 -0.8238874 1.348695 0.14923868 0.21396601 -2.1012652 0.25685388 -0.93039024 1.432051 1.5077848 -0.98790246 -0.0077770995 -0.44573167 -1.4224843 -0.7200019 1.4606421 -0.7901791 -0.01084984 -0.17729191
GAT -0.38954067 0.79397595 -1.4486217 -1.0029842 -0.63663834 -0.63172764 -0.49558625 0.44485918 -1.302693 1.1602534 -0.8073321 1.4576564 0.2959738 1.4526117 -0.2802536 -0.16313145 1.0414208 -0.22613603 -0.26693094 0.028859967 -0.13552125 -0.028927859 -1.1516107 -0.938547 2.5042694 -1.441065 0.1907697 1.2895272 -0.50043434 0.47531658 0.8717495 0.5357921 0.9821603 0.5768408 -1.137411 0.70889324 -0.43739337 0.8716806 1.228082 -0.080756895 -0.7715788 -0.11655709 0.7865446 0.6207798 -1.1223621 0.73626435 -0.27324083 1.6921916 0.06454045 0.14014046 -0.6283127 0.5422303 -1.0574629 0.2849575 1.1756916 -0.19985817 -1.13337 -0.12088282 0.55172056 -0.44200984 0.51900977 0.7327799 -0.90653086 -0.34868854 -0.050765567 -0.8540653 2.5782816 -1.005443 0.15761752 0.19086875 0.89138126 -0.6427531 -1.2438631 -0.77843875 1.6053357 0.09671623 -0.2522605 0.45019862 0.13695686 0.20494168 2.440276 0.022019926 -0.27369955 1.2783331 1.4022168 0.41088 0.1792193 -0.05561306 0.9960525 1.4997317 -0.7819396 0.4914072 2.1906433 0.13977952 -0.0074785454 -0.46290734 -0.7403768 1.3379182 1.2225804 -0.26585698
ATT -1.8700913 -0.51996297 0.30949908 1.1703367 2.7568717 0.723253 0.88269436 -0.48026702 -0.07809254 0.6582486 -2.0950208 -0.5362978 0.040023882 -0.007839039 -0.24885312 0.48484427 -0.7665707 -0.5547756 1.6706829 -0.72555834 0.8249064 -0.36858147 0.80292046 1.4578753 -0.25095364 1.0928382 -0.65415835 1.1100597 -2.1781063 1.0873897 0.58483905 -0.3963378 -0.7635427 -0.17338482 -0.42475408 -0.47809407 -0.60031456 1.9313625 0.89064825 1.8297274 0.38011697 -1.3081181 -1.8327123 0.124099575 0.6549042 -0.2372049 -0.3243599 0.086646825 1.3607037 1.1681118 0.6365981 -0.80430275 -0.7543658 -0.9732388 0.9466449 1.7441549 -1.7640606 -0.6158311 -2.6240106 -1.0978934 -2.1199877 0.6579733 -0.62654567 -0.9728403 -0.1063549 -0.7299138 1.0940119 -0.1963912 0.35123566 -1.0482252 1.5145892 -1.0881404 1.5973595 0.29477268 -0.26431128 -1.9601955 -0.4176716 0.74117553 -0.1338902 -0.5534048 -1.7486434 -0.019584002 0.15163031 1.230248 0.5862882 0.29171997 2.1436303 2.0389998 0.053484168 -1.1016127 1.2674351 -0.34453136 1.5132859 0.27572358 -0.6834786 0.6073508 0.30420515 0.46421346 -0.41575095 -0.671774
TCT 1.3387307 1.2511402 -0.6390844 -0.19407639 1.4324695 -0.2693919 0.8709378 -1.1998239 1.7803714 0.1461466 0.5650492 -1.2192804 -0.03529026 0.54377925 -0.33966428 0.8120634 -0.13501622 1.3705283 -0.41675353 1.4855391 0.29896945 -0.32069504 -0.047453795 0.5511365 0.63907546 1.5737085 -0.881204 0.61940545 -0.15620698 1.6210772 1.3007722 -0.44117698 0.6424239 -1.0516077 -0.5836128 -0.32810533 0.093015015 2.3253403 0.4556049 -1.4250674 -2.6473887 -0.11337701 -0.42249042 -1.4359556 -0.9306263 -0.4535214 1.1163124 1.5550067 0.93934596 0.16665566 -0.7970252 -0.3321191 1.3716588 -1.0923725 -0.35908204 0.2331735 -1.0379654 2.3139882 -0.7143309 0.6207424 -1.1232902 -1.4142579 0.5506218 -0.07740356 -0.26245597 -2.3594472 0.76871014 -0.37975967 -0.4374132 0.23324789 0.9916501 -0.51446366 0.7144458 -0.047071848 -0.93902946 0.03701068 -1.3006612 1.3083937 0.53280455 -0.076557525 1.0665909 -1.8562075 1.0369482 -0.46839663 1.8199098 -0.6578589 0.84667224 -0.33946812 0.64994293 -0.029508194 0.7161549 -0.30735922 0.41929796 -2.2804518 -1.3727621 1.3659803 0.6032737 -0.12550224 0.4489347 -0.7392706
CCT 0.7755129 0.6230373 -0.48844716 -0.1378008 0.704997 -0.33772177 -0.10556258 -1.7076399 2.0432284 0.18516447 0.88392425 -1.6076465 2.0785193 -0.44814512 0.556901 1.1126814 1.2058812 -0.43543652 0.21434142 0.36860698 0.34210342 0.7373772 -0.49916542 2.11902 0.69351035 0.46297666 0.94499546 0.54733384 0.7830707 0.09560441 1.1708292 -1.3000904 0.37342763 -0.58276683 -0.26045635 0.8093177 1.1363597 0.4636975 0.033144135 -1.0456249 -0.9830942 1.4713067 -0.6871534 -2.256167 -1.0759332 -0.0894145 -0.98696977 0.05215054 -0.92216307 0.12531304 -1.3192694 0.47439572 -0.12782732 0.94752014 0.35467392 0.3569838 0.28941566 1.8564582 -0.8525983 1.7196788 -1.2634374 -1.0300435 -0.12873492 0.2505922 -0.47820264 -2.1150322 -1.9021533 -1.4097786 1.3816843 1.0149715 0.09979268 0.75375825 0.12410969 0.8497316 -0.62851906 -1.7511494 -1.237778 -0.15794931 -1.722341 -0.77801174 -0.21183233 -0.91627365 1.6884257 0.29261935 -1.5113542 0.7792931 -1.7386377 -0.6523428 -0.0012485535 -1.1419766 -0.08361257 1.0084809 -0.15458032 -0.17637973 -1.9115903 -1.0212837 -0.8704039 -1.396101 2.0540824 0.43983594
CTT -0.49645218 -1.0359255 0.66704935 -1.0992109 2.4934888 -0.70131904 1.2147914 -1.2735507 -0.9304059 -1.0836645 -0.107163705 0.22889149 0.15245935 0.30013666 1.7265586 -2.7570648 0.16600835 -1.0227698 0.7007682 0.35397574 0.598686 -1.0629501 0.38234836 -0.9703106 0.66948587 -0.80607915 -0.18099064 1.5641059 -0.11158085 0.2064993 -0.5309248 -0.28815877 -1.400727 0.9180321 1.0560386 0.018859824 0.2685454 1.2899272 2.142486 0.637384 0.84610766 -1.0224323 -0.17687994 0.33638227 -0.9500362 -0.48131883 -1.213685 0.9207403 0.62032986 0.01911297 -0.08676809 -0.122687526 0.14391382 -1.4718668 0.5300777 1.0356483 0.13091546 0.17417257 -0.78384644 -0.20711863 -1.0798277 -0.20940743 0.99288696 -1.0314505 -1.0469289 1.155189 0.41070184 -0.07945916 -1.0201392 -1.115608 -0.69707125 0.6089777 0.21177055 -0.06545032 0.32924852 -0.97563964 -0.7340789 0.74108005 -1.1927832 0.8273876 -1.5220098 1.7488285 0.6645133 1.7279898 0.06602337 0.36697254 1.5236139 0.18756793 0.39961165 -0.97531164 -0.4252215 -0.0076447004 1.8613085 -0.9772082 0.20008877 -0.1005944 0.25547603 -1.1264955 -0.61586416 -0.8215847
AGT 1.4977489 0.461593 1.3340211 0.4888602 -0.13531719 0.3586964 0.26870677 0.7614446 0.03856588 0.11492995 -0.30297762 -0.47737962 1.0219457 -1.7935977 0.9154264 -0.62882 0.076857075 -1.2619305 0.5680377 -1.4958954 -0.08344994 -0.7352469 -1.3010406 1.2615325 0.15424588 1.228075 0.5961226 0.23895545 -0.60454404 -0.76698947 0.26619568 -0.55485517 0.7119421 0.5292312 0.7456401 -1.5039145 -1.9274853 0.6342283 0.5725256 -0.507417 -1.5050331 -0.64325565 0.41833556 1.2438583 -1.2857677 -2.2310314 1.1059217 0.024737366 -1.7113069 1.263906 -0.3191144 2.0438752 -0.78103995 0.68835384 -0.2930098 -0.43780485 -1.634086 -1.2649167 -0.31394568 0.038011406 -1.0438033 0.3379336 -0.21781573 0.25870684 -0.92164755 -0.5340303 0.6298997 0.8718601 0.64755136 -2.1967554 0.88359606 -0.7803319 -0.30342346 1.2345443 0.03705985 0.7357796 0.75433594 -0.19758122 0.3240207 -0.2936047 1.1783649 -0.82467043 0.04385014 0.95874375 -0.14818801 -0.39617652 0.84132123 -0.7840035 0.50451595 -0.23956394 -1.8737129 -0.0055743307 1.2581098 0.9324349 1.8911669 1.3425546 0.23344061 -0.7094303 0.74587023 -1.1069764
CAA 0.8522734 -2.0704412 -0.17281868 1.4213034 -0.48241785 -0.4249312 0.3329253 0.8949807 -0.11440751 -0.59777486 0.5948582 -2.3596408 0.6876166 0.66493714 0.8431118 -0.87337565 1.2915277 -0.5479103 -0.17235717 -0.7101063 1.7134697 0.14158759 -0.062369265 -0.30660412 1.1265452 -0.45273343 -0.4067209 0.31832567 0.29560566 -0.022022292 0.41521996 0.22248882 0.50911945 -2.1510558 -0.5314914 -1.234406 0.5305592 -1.2339342 0.069129765 0.03944751 0.31430236 -0.05508171 -1.2962264 0.28730175 1.4983441 -0.0072385618 -0.948133 -1.0588601 1.381137 0.27685982 0.73686 -0.3070554 1.754751 -1.3575627 0.5348969 0.46108112 -1.0979028 1.3636147 -0.037820715 1.9284778 0.20359915 -0.71330404 0.6412199 -1.0718752 0.6063437 -2.0008302 1.0805501 -0.32753003 -0.14798227 0.3796594 0.76256996 0.19422764 0.75811774 0.21305455 2.0724 0.6302579 2.002523 -0.6625515 -1.0529195 0.420782 -0.93802994 -0.12531297 0.0914939 -1.3460388 -1.2843074 -0.5544006 0.37599632 -1.7092378 -0.23205112 0.62302095 2.2542932 -0.3250966 0.41917628 1.0591018 1.4050474 -1.3932027 0.028240055 -0.056774322 0.2751932 0.5802714
GCT 0.32950565 0.81623805 -0.34259567 -1.2489872 -0.8053223 -0.37269518 -0.64865404 0.21728761 1.4932351 -0.120871514 1.3066512 0.15752836 1.2670784 -0.5722422 0.65547013 1.1528748 1.1861557 -1.4346131 -1.0882876 -0.040765658 -1.4516071 -0.8394922 -0.45670214 0.6393855 -0.27763772 0.6649681 0.4229912 1.0507641 0.7423102 0.50875384 1.798042 -1.9407709 -0.18891472 -0.9977101 1.133951 -1.8100863 -0.16230838 -1.5377165 0.87335616 -1.6110003 -2.4273791 0.40631247 -0.085493565 -2.2093883 0.7516538 -0.3080087 -0.3120061 0.84066373 -0.6317601 1.1252266 -0.1956454 -1.0713751 -0.56915545 0.9911674 1.1472629 0.08711414 0.9170955 1.8365945 -1.2322376 0.4827651 -1.4090965 -0.14295782 -1.8580952 0.6716563 0.96505433 -0.30832472 -0.098921984 -0.069479726 0.17935148 0.5697716 0.32118154 0.31378198 1.3151593 -0.9815568 -0.67439115 -0.91215694 -0.23829289 0.12802678 0.24988176 -0.2945702 1.0636833 -0.49778298 0.7826765 0.5299701 1.2506666 0.3567583 -2.6801856 -1.1810073 -0.39635763 -0.45525485 0.40592745 -0.2746024 -0.18359496 -1.3904899 -0.7747917 0.75584227 0.9670802 -0.2918551 0.50634325 -0.53075796
TGT 0.27322537 1.7894791 0.04330833 0.37082264 0.58011454 -0.4521278 1.572914 -0.22760952 -1.4006639 -0.57190853 -0.420596 -0.24392383 0.26219764 -0.73181564 1.834895 0.685457 -0.91613436 -0.02936914 1.1328607 -0.3820406 -0.3064762 -1.0794153 0.21989435 0.06655517 -0.36505592 -0.05084222 0.80244553 -1.4183235 -0.165285 -0.6140197 0.9153605 -1.1240945 0.9467292 -0.80948615 1.3182249 -0.9030461 -1.7541062 2.0682132 0.77355236 -1.5599173 -0.28329134 -1.4693642 0.16441238 1.6431102 1.03789 -1.2136868 -0.056121238 -0.1776184 -0.9742539 -0.10191104 0.80176693 2.2288957 -0.42014226 -0.24813846 0.196752 -0.31585333 -1.1311662 -2.145084 -0.495508 -0.7700697 -1.4627135 0.11847794 -0.9226069 0.7515799 0.08025401 0.11877951 0.7800742 0.63182616 -0.7695031 0.06475104 -0.8512487 -0.48018914 -0.045803446 1.5814983 0.2004957 0.7439131 -0.94988185 0.49974048 0.14827588 -1.1178073 1.2051314 -1.0448023 1.884262 -0.9776399 0.9839281 0.14348222 0.8331331 -0.87443984 1.1192493 -0.2774465 0.25678274 -0.85553426 -0.23463418 0.6156535 0.6174612 0.5845984 -0.35924578 -0.69979656 0.81118566 -0.678002
TTC -0.30264977 0.67483187 -1.0110888 0.3087841 -0.66833305 -0.20683427 -0.6686524 0.87580013 1.0813483 1.1582736 -0.4138406 0.24321298 1.8558505 -1.5733912 -1.7521758 -0.19876648 -0.5489975 1.3047254 1.5814327 2.1784573 -0.4503914 0.22833957 -0.9081547 1.1819164 -1.339611 -1.3954757 0.7602576 -1.348445 -0.9603178 -0.38576958 0.42666048 -0.53172004 -0.09633136 0.5569995 1.2762071 0.023740584 -2.2625499 -1.5698342 -0.01282282 -0.62027264 0.6429163 -0.05668159 -0.4184733 -1.2835187 0.46592858 1.8852506 2.8904185 0.36141875 -0.9095549 -1.9795563 0.3970305 1.6322986 1.9113377 1.2997409 0.18742035 0.09885662 0.18556297 0.12793231 0.93786156 0.07652524 -0.13635992 1.0073984 -0.52558786 -0.410027 0.015592443 -0.2683766 0.34076822 -0.98876786 -0.29164842 -0.10117612 -0.02149236 -1.8363899 0.04504261 0.13777311 0.12212709 1.0777416 -1.7987943 -0.50092435 -1.6596557 -0.20846622 -1.4333891 0.46926716 0.47761315 0.1868218 -0.13974951 -0.66841096 0.4345417 -0.18450296 1.4850063 2.086134 -0.59933263 -1.6633157 -0.36435622 -1.0693616 0.3293426 0.07780675 -1.9194734 1.2883677 -0.14453536 -0.46252453
AAC -0.34810346 -1.9596468 1.2210822 0.5702819 -1.1980418 1.4558715 0.5389579 -0.17719132 -0.34847692 -0.5222691 0.8841864 1.6606039 0.0072185146 0.6066855 -0.91647553 1.9382232 -1.5051608 -0.42886943 -0.34125528 0.17283563 0.82190716 1.5447755 -0.07579658 1.8110594 -0.6060558 0.39234394 1.698682 0.8659922 -1.975152 0.9399044 0.65094906 -0.5234648 -0.8697389 -1.0442235 0.73231375 1.9878191 -0.75185317 -0.5041523 -1.229959 0.04855701 -1.2752317 -0.13615958 -0.43599266 0.26750717 0.9944603 0.39615938 -0.09005458 0.5912259 1.2722645 -0.43109268 1.3816205 1.5652395 -1.5428172 -0.67416227 0.9529094 -0.22862762 2.5365136 0.10914601 0.014041092 -2.100926 -0.40736482 -0.08749797 0.5873082 -1.5361868 -2.3994038 0.8583247 -0.8289409 -0.54920995 1.337999 -0.61258644 1.0417756 0.10733129 -1.1864108 -0.31237248 -1.2721053 0.61612827 0.6049279 0.895107 0.9259234 0.52869433 -1.6789126 -0.6505243 -0.8369213 -0.08784328 0.43894115 -0.6645183 -1.6253159 1.6605853 0.5518421 0.42561963 -0.6591587 1.1975698 -1.0868847 0.2553255 0.8865443 0.623216 -0.7530963 -0.83072776 -0.4573292 -0.046177696
ATA -0.40157956 -1.9108258 0.83236814 -0.018473914 1.3111695 2.093695 1.9247563 -0.7935099 0.7595615 1.178624 -0.5673861 -0.71276414 -0.61892354 0.67830944 -1.9566513 1.7416439 -0.5724746 0.6229795 1.8692544 -0.1816257 -0.3458149 -1.4624462 -0.96569616 0.5026769 -0.3622231 0.19929944 0.1430026 0.16900733 -1.7593728 -0.3862939 -0.2623774 1.5463282 1.346072 -1.1216942 -1.2736775 -0.5755908 0.29517284 1.1618638 -0.9717854 0.47193122 -0.26663622 -1.1620444 -0.83211404 0.6277053 1.2767391 0.54471755 -0.74160844 1.733745 0.460696 1.0661652 -1.3851049 -0.73489094 0.028804926 -0.9381891 0.029422352 0.83724916 -1.61311 -1.5738534 -1.1474819 -0.23036346 -0.22026898 -0.7748887 -2.1003225 -0.42218348 -0.00684109 -0.49802527 0.11797832 0.0024127609 0.3680811 -1.2492734 0.87993234 -1.592328 1.1080537 0.17354855 1.3646482 -1.5119858 1.5530367 -0.80564713 -0.031979278 -0.9704247 0.69198585 -0.7095068 -2.191512 1.1884975 0.36625686 0.34345528 1.2684888 1.5542234 -0.11978826 -0.52401143 1.3334824 0.20231579 -0.9501486 1.8991344 -0.038150944 2.3187697 -0.88695234 1.6005156 -0.056032762 -0.5418407
TCC 1.8328592 0.7603825 -0.43663418 -0.5782496 -0.5777942 0.25625795 -1.4249964 0.2663518 1.2810087 0.11921222 2.2402074 0.19007777 -2.257153 0.89146763 -0.6310999 0.8948273 -0.08752013 2.5654914 0.46245867 1.858444 0.7967763 -0.44594103 0.02635221 -0.004304204 -0.34926245 1.8281827 -1.2175086 -0.6787966 1.5497698 2.139632 -1.0630419 -0.7632823 -0.2943213 -0.8306109 -0.03304764 0.8363687 1.1154104 1.0094715 -0.35094237 -0.06372915 -0.93206793 -0.23389749 0.8316017 1.2839439 -1.3791101 -0.7325662 0.8274486 0.63980824 0.871708 -0.42554036 -0.03756359 0.6870909 1.1749622 -1.0678489 -0.43781027 -1.1251229 -0.64677066 0.9797536 1.0415432 -0.5227491 -1.3845559 -1.2626096 2.0985494 1.2333674 -0.8337112 0.501598 1.1195041 -0.0224913 -1.3695644 0.123587795 0.23843898 0.062892534 0.3710786 -0.4483337 0.6492003 0.8688984 0.7736311 1.6102041 1.7298616 2.640593 -0.7985181 0.5630015 0.75889194 -1.368943 0.6383309 -0.18865487 0.8690351 0.8002201 0.52660453 1.2015499 2.261063 -0.9552629 0.08537987 -2.2265697 -0.58548784 1.1282622 1.3184929 0.85411584 -1.2441909 0.66132003
TCA 0.2893629 1.1189057 -0.40580836 0.23079465 0.92533827 -0.39016822 0.09101613 -0.921467 0.7696796 -0.11530472 0.21519674 0.43794793 -1.5627801 0.9375015 -1.1121243 -0.26682353 -0.8066623 2.6308038 -0.21165085 0.7045874 0.41755038 -0.6264907 -0.65580904 -0.7767395 0.6677447 -0.5010423 -0.16299507 -0.6222793 -0.9651336 0.8840255 0.04242473 1.5676237 -0.1634722 -0.93081564 -0.41278666 0.05627935 -0.6302297 2.9397514 0.5615446 -1.1163319 -1.0719179 -0.7855409 0.6459105 -1.151459 -0.26511684 -1.9893214 1.229525 0.04898906 2.755659 0.30061236 0.46572676 0.97646224 1.1356812 -1.610006 -1.8399123 0.2417929 0.062741265 0.08563607 -0.8790027 0.750272 1.6981937 -0.50505745 1.4535935 0.03397233 -1.5341802 -0.6507735 -1.5849355 0.541896 -0.34036046 0.3096331 0.8300987 -0.53620887 -1.4342046 0.24195707 -0.8826687 0.8128725 -0.29674077 1.8120124 1.0536671 0.4309493 1.3490918 -1.3269312 -0.8522678 0.09817537 0.56288135 -1.1394917 1.2509722 1.2895771 0.12715937 0.793268 1.2261034 -0.7266134 0.45821002 -1.4266005 -1.9420618 0.5067486 0.8017441 -1.0447955 -0.7543081 -0.4111759
CGG -1.0184582 0.6211665 -0.67483014 -2.4243503 0.4139219 1.5940956 -0.66508675 -0.2415864 -1.2399695 -1.9022781 3.379685 -2.021379 -2.5597796 -0.35691828 -0.07894302 -1.6886528 0.87087524 0.3461772 -0.9118732 -0.7847571 -1.5024304 1.4850553 1.9303887 0.0023216489 -0.9067304 0.6599835 -0.066443056 -0.7058032 0.8843651 -0.10853557 -2.3848135 -0.98722965 -0.5336989 1.0479943 -0.27733517 -0.57070976 1.9091597 -2.6172192 0.8583463 2.0065699 0.26451367 -0.28824082 1.2356149 -0.25539553 -0.4854555 1.1756082 -0.3260179 -0.66520256 -0.544443 -0.8602031 -0.37282228 0.6797202 0.95469314 -0.5491058 0.8448057 -2.3926377 0.6905498 0.35926485 0.16043037 0.104300424 1.0717562 0.5421198 0.21457823 0.92418295 -1.2514429 -0.81452805 -0.29379448 0.18187165 -0.8635822 1.0212489 0.13025048 0.4099086 0.25157705 0.17169891 -2.0451355 -0.8430269 -0.6833572 0.06005806 0.67183435 0.22954664 1.043982 -0.6075901 0.8596682 0.3850896 -1.1378577 2.1076207 -3.7151375 -0.43720934 -0.28951913 0.16744196 -0.92440265 0.781069 0.05218251 0.8845296 -0.22449078 -1.1273386 0.19710188 0.4840259 -0.05432652 0.081492215
GTT 0.32344347 -0.2758581 -1.8157468 -0.017065931 1.0557401 -1.6401151 1.0704772 -1.4388093 1.1849998 -1.0622331 -1.080253 1.8820872 -1.1143613 -0.49288386 1.1526848 0.57577837 -2.3940659 -0.5654387 -0.024160566 0.3298805 0.9029538 -0.0035941314 0.42432022 -0.9693064 0.46783644 0.64155865 -0.59519696 2.2776403 -0.1889769 1.143063 -0.3372294 -0.114496805 0.29828703 1.764984 -0.1628234 -0.11737459 0.23990026 0.6415118 2.0951412 1.7869395 0.50518674 0.55355704 -1.0443599 -1.8199314 0.87624097 -0.49315193 0.23082677 0.1869379 1.2886326 -0.49139297 1.4587826 -0.7820471 -0.26985487 -0.46658418 0.9451319 1.5215594 0.74586004 0.18782377 -0.29411024 -0.020725073 -0.77633387 1.5887656 -0.6819726 -0.727341 0.47479972 0.08631475 1.1926779 2.2711532 0.52735 -0.22172247 -0.41047627 -0.4444081 1.6347631 -0.050366994 0.25143257 -2.0536034 -0.8654575 0.614582 0.2195854 0.27283472 -0.882379 0.45050278 0.8828039 0.8383859 1.0884128 -0.079103574 0.46742123 -0.52616185 0.08576748 -2.4648702 -0.43997127 0.71278983 3.3103867 -1.0956368 -0.27628124 -0.44933614 -0.08534982 -0.33950314 0.07854092 0.59654135
CCA -0.081848346 0.15226369 -0.28914157 -0.25373474 0.095766895 0.40624824 -0.4522092 -2.1926713 0.3888987 0.595459 -0.34056136 0.7340627 0.36004817 0.30094296 -0.6070228 -0.29228678 0.9926837 0.9109176 0.47614565 -0.1348213 0.52594185 -0.09810553 -0.949987 0.53177184 0.66933995 -1.4973356 1.4466347 -1.0689895 -0.10023459 -0.30530468 -0.40485054 1.0380797 -0.29844555 -0.46503645 -0.2045916 0.6293498 0.09364715 0.9205539 0.4431017 -0.1805421 0.915257 0.3863449 0.5012558 -1.4252923 -0.71640867 -1.3990121 -0.71361935 -1.3984364 0.9398255 0.19572464 -0.15431984 1.7342355 0.107986696 0.38211402 -1.5018655 0.22682452 1.0030751 -0.16761912 -1.4797468 1.7105895 1.8016357 -0.4613275 0.036438957 0.36785164 -1.4582053 -0.3983436 -3.552101 -1.3071988 1.6705092 1.0169483 -0.29157996 0.5694828 -2.0387864 1.0475596 -0.59555227 -1.0162457 -0.26799792 0.41716745 -0.9688341 -0.2633278 0.81337667 -0.27132356 0.079703175 0.6062309 -2.6028278 0.15470949 -1.2905205 0.6827547 -0.4861285 0.30277538 0.776311 0.3347999 -0.45962378 0.28187022 -2.6474457 -2.540513 -0.34873044 -2.3108375 1.265945 0.7387591
CTC 0.24767539 -0.77354383 -0.057419837 -1.6475993 0.2519326 0.06810251 -0.56833273 -1.3315123 -1.0783271 1.4965415 0.7033312 -0.14758883 0.45966223 -1.1992229 -0.97750205 -2.6518943 0.53067887 -0.21621478 1.3860403 1.2258126 0.22516052 -0.9944066 0.35517496 -0.26015034 0.102281526 -1.698536 1.9677987 -0.7053292 0.629216 -0.25839078 -0.2882571 -0.54852515 -1.1208034 1.835596 2.8230257 -0.6980785 -0.80747795 -1.1470944 2.8070946 -1.1271803 0.61638993 -0.7370782 0.350678 0.3096461 -1.2307006 1.3119352 -0.05646886 1.1175535 0.13349819 -1.5028611 -0.6174431 0.73707694 1.737973 1.264767 0.3218661 0.5028454 0.68320423 0.24875587 1.0453144 0.04696671 -0.2654323 0.018183293 0.08707019 -0.2904457 -0.08485409 1.6501914 -0.55664605 -1.2280204 -0.96967393 -0.76998806 -0.4877286 0.6671772 0.093009606 -0.09369666 0.2627876 0.10872098 -0.14211962 -1.1203359 -0.93054014 0.7789226 -1.4083438 1.5246605 0.1145959 -0.093065746 -0.91978824 -1.2131058 -0.4768135 -0.18243232 1.4712806 0.8807861 -0.16240397 -0.7108475 -0.020929726 -0.067147665 0.09030114 -0.49729967 -0.3474942 -1.3213842 -0.49738154 -0.8100903
TTA 0.06571729 -0.15962932 0.59166044 -0.3938373 0.09595705 -0.15939763 2.4074845 0.9954005 2.3534305 -1.0522918 0.23537043 0.06861365 0.9141807 0.49425024 -0.44313785 1.3238813 -0.795343 0.93013126 1.3726327 1.4301881 -1.379566 -0.32646918 -2.2006776 0.19390777 -0.7345556 -1.053582 -0.19872785 -0.024743725 -1.4811922 -1.5861818 -0.083811 1.5643628 2.1160784 -1.4489741 -0.76170665 0.31268075 -0.8216468 0.040422756 -2.2362702 -0.020567691 0.61184496 -0.33573404 -0.5052212 -0.49772817 1.2796729 0.8812087 0.7086141 1.9703054 -0.6241651 -0.43555126 -0.67013997 0.30349857 1.5476298 -1.8470482 0.053462535 0.25114924 0.39892608 -0.702274 0.8124153 0.9581328 0.66047066 -0.7973885 -1.0561376 -1.1478432 -1.0701195 -0.9659922 0.5356674 0.26381177 -0.9946481 -0.5559834 -0.4084413 -1.9888185 -0.18412936 -0.27475393 1.7767048 0.58599496 -0.03144291 -0.62176055 -2.3225808 -0.6940171 0.94016856 0.26040542 -1.1815423 1.9508907 0.7506125 0.71792513 1.7940692 0.5451141 -0.7724711 0.7949157 -0.031699475 -0.31635094 -1.5083705 0.048521213 0.50017744 1.9136019 -1.9439205 2.395783 -0.14547834 -0.75979185
ACA -3.1095197 -0.087979764 0.3292069 1.1632125 -0.27658206 -1.0024998 -0.5370217 -0.86091924 -0.5520087 0.60484195 -1.2159513 1.6025391 -1.4097096 0.033601925 -0.42130715 -0.4363448 0.38404092 -1.4351603 -0.015934108 0.37566042 -0.44568244 -0.71819514 -0.29176608 -1.7861686 0.5367474 -0.35496068 -0.4528011 -1.5623988 0.053892463 -1.9493698 -1.4967984 2.3190713 -1.6119089 0.8278569 -0.3448592 -1.3320715 -1.27519 1.2995441 0.5765449 0.69160086 0.7129464 1.0338005 -0.29360607 -1.5976706 0.2163071 -1.146261 0.7022178 -0.42793307 0.99992007 1.6944996 -0.3691644 1.426863 0.1930825 0.58476704 -0.669378 -0.2294106 -1.0441114 -1.8631455 0.26622754 0.26594886 1.2512088 -0.21669772 0.12844774 -0.7890809 0.89635825 -1.6559876 -1.865586 -0.5348334 1.2482126 0.17541924 0.4900759 -0.114079826 -1.7687693 0.6639835 -1.0373447 0.9143197 0.18205883 -0.75153905 0.446055 -0.35009348 1.6798772 0.5183502 -0.20372723 0.41827375 -0.8312794 -0.6662844 0.8427766 0.36149666 -1.3281174 0.6251095 0.8653284 -0.5763381 -0.088907294 0.24705176 -1.6520282 0.3669833 -0.5275211 -0.9091294 -1.3079258 -0.02570689
TAT -0.90964687 -0.022312833 -1.1869023 0.6736004 0.7609482 -1.477263 -0.16992074 2.892421 -0.55156153 1.2832458 -1.8275181 0.61295885 1.2386974 1.1027391 1.9088405 -0.9725559 -0.43304676 -1.1048168 2.2139401 1.1849952 1.2516135 0.28812894 0.16432284 0.6792356 0.6365795 0.52043116 -0.05916441 1.2639884 -2.2661183 0.8394482 1.3600874 1.1770451 0.79879385 1.430049 -0.4406194 -0.9089432 -2.1298175 1.6136423 -0.052054565 0.010294168 -0.6100375 0.87545973 0.92946976 0.58912575 -1.8666241 -0.0912183 0.4207692 1.5475963 0.63919884 -1.300219 0.6059293 -0.57215655 0.17179827 -1.597459 0.82547635 0.4653489 -1.1207521 -0.16647662 0.18387859 -0.15648694 0.54650044 0.6143571 0.44433182 0.5522948 -0.4349198 -0.14802009 1.5444174 -0.92433095 -0.19486281 -0.13895743 0.3789089 -1.0371056 -1.2510054 -1.8993793 0.54386294 0.8565481 -0.942455 0.14535527 0.17498218 -2.1335335 1.8815459 0.020928912 -0.13324468 0.36707434 1.3736241 0.40017974 0.72556144 0.94904846 -0.63886946 -1.2636976 -0.22851661 -0.33129027 -0.5201868 0.13785191 -0.8412298 -1.2902595 -0.13133717 1.3279432 0.3196808 -0.42832884
ATC -1.1055299 -0.55121946 0.29503635 0.7144301 0.67555 2.2388566 -0.6237506 -0.54194957 -0.3697552 2.9200656 -1.4378519 -1.1181184 0.77989143 -0.9564136 -2.702537 0.08442291 -0.11828279 0.4807115 2.2847877 0.37889633 0.03821723 -0.4539589 0.31115294 2.2722342 -1.1432211 -0.83457613 1.418717 -0.91215056 -1.2980517 0.5964097 0.08038586 -0.9089735 -1.0091311 1.1082891 0.8498113 -0.65248394 -0.89862967 -0.94628227 1.618627 0.19779539 0.20107126 -0.7607522 -1.5228487 -0.21883702 0.37589997 1.7601585 1.3526024 0.5355335 0.98859674 -0.019833563 0.22231194 -0.0063693807 1.069361 1.6311374 0.7394832 1.3758248 -1.3278995 -0.59243035 -1.1584389 -1.1653987 -1.5094202 1.321481 -1.4031934 -0.42329744 0.40756094 -0.545405 0.07522352 -1.5822611 0.47278985 -0.39969376 1.9320133 -1.4653054 1.7217733 0.557426 -0.6669277 -0.80820674 0.118988015 -1.1169846 -0.0796852 -0.33419216 -1.533628 0.00031588308 -0.22696072 -0.4331653 -0.14838499 -1.0878288 -0.2761406 1.7680047 1.8719524 1.4240032 1.9914529 -1.3144857 -0.30768543 0.88264835 -0.69563764 0.19991718 -0.1622949 0.36474937 0.07880914 -0.42887804
CCG 1.5056564 0.5921869 1.2718558 -1.289754 -0.71087694 0.9094682 -0.81115985 -2.0365143 0.4499569 2.328613 -0.9639075 -1.5326544 0.74529666 -1.3167791 -0.9482504 0.0017657464 0.48976487 0.70063144 -0.75288886 -1.708012 1.562418 2.0943863 1.7891607 -0.04804215 0.6618396 -0.45758852 0.44508505 -0.36657715 1.4318422 0.14392868 0.28089538 0.8988729 0.5585885 0.27321452 0.7002529 2.1563232 2.581322 -1.4139894 -1.9645083 0.06022037 0.096514866 0.115426615 -0.42800024 0.8019735 -0.7746387 1.1191225 -1.1992964 -0.28402093 -2.5832667 -0.7183354 -0.798416 0.45474756 -0.5126667 0.8571334 -2.0188015 -0.8354305 0.5624534 1.068149 -0.3177102 0.73962766 0.80751276 0.15967947 -0.23715603 0.34172127 0.42004818 0.816165 -1.2564045 -0.024456223 0.5523622 0.70995533 -2.5796165 2.948951 -1.6670285 0.32429707 -0.9846274 -1.6495017 -0.020435387 -1.8615748 -1.3418534 1.2068958 -1.1918505 -0.17819814 0.57052803 -1.5850464 -1.7783933 -0.2533408 -0.9198211 0.03544515 -1.4126902 -0.22884355 -1.5325055 1.2744447 -0.26450944 -0.30329078 -0.0060873847 -2.4099839 2.3369942 -0.45058128 1.5575571 1.0039628
ACT -1.743504 0.71657044 -0.81690925 1.6557149 0.45403665 -2.1089122 -0.3960645 -0.22771618 0.9261109 -0.09996115 -0.13778126 -0.88540137 -0.06654593 -0.1912277 0.28344965 0.99148244 0.55115664 -2.2660136 -0.74605185 0.5748036 0.12095859 -0.42080897 0.13149124 -0.4105687 0.64580715 1.2012306 -0.8122394 0.13911511 0.54357857 -1.699111 -0.14528263 0.38647366 -0.80182934 0.7320072 -0.90687174 -1.6187527 -0.3689371 0.97110456 0.89657354 0.2751929 -1.1143327 2.0584366 -1.3617601 -2.323087 -0.24374501 0.6161203 1.0880167 0.9648973 -0.37699026 1.7961375 -1.4523755 0.49849454 -0.09405621 1.2171085 1.4265783 -0.3058459 -1.9116001 0.36354977 0.42292452 0.096753486 -1.2527499 -1.2200015 -0.62686867 -1.2243825 2.0950177 -4.0129747 -0.07751651 -0.4660956 1.2256857 0.47800422 0.808837 -0.5068823 0.24941114 0.7211061 -1.572663 -0.11282006 -1.0200728 -1.0196152 0.13657595 -1.2357023 1.2553287 -0.23129967 0.84144276 -0.190627 0.44361785 -0.44844374 0.5924088 -0.93197286 -1.1437312 -0.7038284 0.067835875 -0.3563892 -0.52302015 -0.29342252 -0.9318197 1.6523205 -1.1614027 -0.3627267 -0.43635577 -0.32963252
ACC -1.7710415 -0.72560054 0.8948254 0.77368736 -1.2866619 -1.0409099 -2.1527681 0.35724577 -0.1583537 0.22731416 1.0500374 0.9933525 -2.4091725 0.23623909 -0.20977524 1.0907004 0.6832988 -1.9774908 0.45423657 1.2772014 0.6005188 -0.8687141 0.124629974 -0.49566662 -0.74966615 1.7200247 -1.2759612 -1.1628997 2.291813 -0.9260492 -2.5841775 -0.035985317 -1.8981001 1.471741 0.11128014 -0.9043422 0.5562026 -0.20894204 0.17266047 1.1257501 0.55228204 1.6610252 0.14908199 0.5844887 -0.80171144 0.4072009 0.33828828 0.03305869 -0.25933498 1.0952276 -0.9836015 0.9430363 -0.5662294 1.0852367 1.181898 -1.6861664 -1.6029893 -0.6845288 2.0015745 -1.0421776 -1.4392644 -1.1263839 1.2634186 0.18038552 1.7414707 -1.1901337 0.37980628 -0.94032896 0.5008628 -0.13087218 0.3905076 0.17873836 -0.26789752 0.088318944 0.12474266 0.7830384 1.0741755 -0.93418497 1.5350915 1.4624448 -0.48327288 2.1524842 0.98758906 -1.18679 -1.2924386 -0.017853959 0.5073566 0.184963 -1.4023489 0.64815587 1.7877073 -0.9464803 -0.83477515 -0.025694381 -0.68244934 0.607116 -0.18804355 0.9277536 -1.9919662 0.7311941
CAT -0.5092047 -0.4028232 0.003292053 1.0217545 -0.25543436 -1.1263195 0.06284015 1.572365 -1.2091931 0.96849036 -0.32342848 -0.64926267 0.33617923 1.2057561 0.6395598 -0.029891524 1.4653801 -1.6514817 0.60024136 -0.71533585 2.2044134 -0.03779035 -0.3959056 -0.62403107 1.6182519 -0.54727805 -0.64359796 0.82389337 -0.5156262 0.100679904 2.237237 0.21065637 2.2134933 -1.5267402 0.33768162 -1.4754374 -0.9373854 1.7946353 1.3686326 0.024199245 0.4314523 -0.19099663 -1.0073339 0.52779454 -0.7017356 0.12689191 -1.3579752 1.6184577 0.6572285 -0.8284526 0.3428718 0.1453886 1.6893342 -1.3391604 2.3026936 0.0046265717 -0.03433178 1.0373864 1.3124677 1.4430826 -0.39551485 -1.2077211 0.30536422 -0.5414156 -0.7168692 -1.670643 2.2610111 -1.0093241 0.48300287 -0.43780535 -0.3162637 -0.9376688 -1.0183086 -0.3957186 0.91847193 0.12245321 0.14045349 -1.2689558 -0.5718654 0.5892414 0.5593975 0.14921279 1.5804996 -0.046065148 -0.6213014 0.106186934 0.012238597 -1.659231 0.2947861 1.4148526 0.6174218 0.6711698 1.9014766 0.316472 0.16324317 -2.067469 -0.0051972256 1.546373 0.8367932 0.868175
GAC 1.3308315 -1.2630512 -0.14359502 0.1994723 -0.3878013 1.1455927 -0.073874965 -0.5440916 -0.35149643 -0.56868845 0.5156091 1.7646798 1.1518804 0.48989692 -1.1558357 1.3881803 -0.45165753 2.0656273 -1.3836156 -0.4823915 0.69628894 0.09055441 -1.0143404 0.071061626 1.5101713 0.18933932 1.9726505 1.3031185 0.7724576 1.5374509 -0.6260886 -0.7264892 -1.6871423 -0.16360879 -0.5153945 2.4307995 -0.053972468 -1.0417908 0.8300251 -1.0053426 -1.4376441 -1.1718487 0.9836261 0.99667954 1.117205 1.981787 -0.019551285 -0.5759917 -0.18132189 -1.1285317 0.5106037 1.9565779 -2.5689416 -0.19969378 -0.23571424 -0.4882818 0.6337595 0.24691246 -0.009222347 -0.93250936 0.076469555 0.4593453 -1.0838325 -1.3981159 -1.0418642 0.104835965 0.59575003 -0.034632187 2.080536 0.5879579 0.43687287 -0.47551382 -1.3383168 0.49294648 -0.07941959 -0.00898408 1.0146279 1.7885607 0.44157693 1.307196 -0.015371671 -0.1614728 -1.8676752 0.63811266 0.5843386 0.25757375 -2.1962302 -0.66333914 1.1434114 0.9830398 -0.18778634 0.25177446 1.2973613 -0.2611304 0.4659871 0.65500826 -0.7908418 -0.737396 -0.23098561 0.124735914
GCG 1.1644127 0.93916863 1.4783907 -0.8875153 -2.1539428 0.52917963 -0.81227636 -0.08791329 0.34874886 1.4759555 -0.6202982 -0.061767407 -0.10255309 -1.2269256 -0.9523618 -0.007286388 0.22749484 -0.9360986 -1.6470875 -2.1593556 -0.12030036 1.0634334 1.8597201 -1.5968958 -0.16008316 -0.11129721 -0.3775272 0.20257065 1.6827325 0.3788443 1.3964733 0.21006326 -0.14062303 -0.25282922 1.7341962 -0.15562533 1.4037114 -2.8681164 -1.1257066 -0.36087352 -1.0138181 -0.8833777 0.33910373 0.3471333 1.1542974 0.9161411 -0.25088695 0.30750516 -2.3982964 0.61832666 0.2619095 -0.5903274 -1.2562978 1.0924988 -0.64200497 -0.8308957 1.730971 0.63916945 -0.33568507 -0.43041 0.34630775 1.3804328 -1.4983834 0.9121924 1.1186856 2.9492185 0.31413728 1.5144731 -0.1605016 0.8710646 -1.8588254 2.1068769 -0.47180206 -1.2785094 -1.0535451 -0.71432656 0.76655996 -1.1875308 0.22735454 1.3798199 -0.75852185 0.37584358 -0.31041962 -0.5378345 0.93029076 -0.29500917 -1.784241 -0.45609263 -1.8358604 0.71748966 -1.1479036 -0.29679883 -0.06914059 -1.0125481 0.88151 -0.67996126 3.1787224 0.3563598 0.17736818 -0.08500684
GTA 0.9929482 -1.2294706 -0.6672654 -0.51817715 -0.9155916 -0.9288591 2.0887456 -0.99988955 1.906028 -0.8660716 0.26669145 1.3744918 -1.6276844 0.7052111 -0.44773558 2.1944046 -2.3642516 0.5523099 0.081602134 1.1591424 -0.6562217 -0.33581477 -1.2295574 -1.5862818 0.656832 -0.035361733 0.22252175 0.9833011 0.53125244 -0.88904846 -0.8989626 1.9027523 2.500181 0.50689214 -0.9293391 0.06559263 1.2720758 -0.07176506 -0.3578018 0.4739477 0.05440754 0.50804543 -0.5157926 -1.2235535 2.0352826 0.27072763 -1.0986655 1.7943785 0.7710105 -0.6494197 -0.2893933 -0.83256775 0.20308755 -0.42082015 0.6314047 1.0718474 1.8087933 -1.2600138 1.3469558 0.9777632 1.1392967 0.4047071 -1.9514602 0.09365256 0.485845 0.38278452 -0.34089974 2.8611026 0.6144522 0.058529846 -0.77747613 -0.71496654 1.255761 -0.32297778 1.7040663 -1.0958964 1.3326695 -1.0588852 0.1542688 -0.35515258 1.4527555 -0.42375705 -0.6083532 1.1277144 0.95636284 0.7240687 -0.6343524 -0.73032224 -0.51712406 -1.1967057 0.13223197 1.3218908 0.62303394 1.269114 0.116800725 1.166723 -1.2811556 1.0982971 0.25230217 0.82036
GTC 0.9866377 -0.25967056 -2.2218425 -1.3640088 -1.4931962 0.097092785 -0.7313656 -1.2116809 0.926944 1.8857267 -0.62301254 1.8748268 -0.038523547 -0.81422645 -1.5120445 0.8544519 -1.2867931 0.55960524 0.4358786 1.4051179 0.5176116 -0.09250048 -0.3276364 0.16288531 -0.10544749 -0.6995983 1.6706538 -0.2263947 0.32626012 0.90024334 -0.6205505 0.06068108 0.08222372 2.805415 1.3587903 -0.75499535 -0.8031978 -2.041211 2.5480728 0.75256574 0.96735734 1.1119591 -0.53673035 -1.5864 -0.025265109 1.3628424 1.0529118 0.63949335 0.44092947 -2.2439563 0.5259545 -0.4775483 1.2050648 2.1988852 0.68901086 1.0975701 1.1333623 0.19821467 1.3632479 0.2646782 0.13470297 1.6089911 -1.5579872 0.60776967 1.1628314 1.0913336 0.34802476 0.5601245 0.58877784 0.17765234 -0.17510131 -0.8271386 1.4699796 -0.15351804 0.43834713 -0.9602171 -0.33403486 -1.1445854 -0.121733226 -0.1291089 -0.42620477 0.60628426 0.88559914 -0.6736571 0.17262043 -0.8265824 -1.4690651 -0.951058 1.4779514 -0.13669525 -0.26430815 -0.2986482 0.84295255 0.019714909 -0.2737379 -1.1448764 -0.89943 -0.68598354 0.59858257 1.0967698
TAG 0.1430631 -0.79450107 -0.8410011 0.11712092 1.2175143 -1.6828583 -0.2939842 2.8282435 -1.2541136 -0.625044 -1.2714587 -0.5057873 0.580286 0.60784054 0.690686 0.55701524 -0.65123713 1.8671435 1.024983 0.7510173 -0.09745204 -1.1502281 1.6157577 0.56641096 -0.6835381 1.3981903 -0.12071751 0.08118453 -0.5322913 0.74239045 0.8809068 0.52155405 -0.9304026 0.9780835 -0.41271248 -1.4712586 -0.7260505 0.16240358 -0.04670958 -0.7386385 0.7694941 0.4736914 0.4001103 -0.34686667 -0.64793223 0.77855265 0.32030734 -0.49587354 -0.19630377 -1.894132 -0.2833237 -2.6957743 -0.61534965 0.055126138 -1.2611676 -0.010122992 -1.6339823 -1.1550915 -0.84072757 -0.5748916 0.74126244 0.21383758 1.4208169 0.8144935 0.67538726 1.8200781 0.21047147 -1.2391529 0.47470886 -1.1232641 -0.5276691 -0.42695346 -0.2804839 -1.124945 -0.83878195 1.2044997 -1.0430294 0.025634214 0.5068218 -2.1841273 1.9078411 -0.7557315 -0.6601301 -0.72764593 -0.15122765 -0.30590463 0.09420359 0.20213038 -0.5978144 -2.5179772 -0.1647525 0.15401441 -2.2023408 -0.4974157 0.1293755 0.022001276 0.010419447 -1.2604796 -0.40868607 0.26494065
CAC 1.1698849 -3.0046818 1.7297732 1.6913272 0.044519424 0.6883639 0.014405073 -0.040692843 -0.5859189 -0.09149104 1.0977653 -0.48207787 0.32557893 0.5063252 -0.011503766 1.4288554 -0.5646496 0.56810534 -0.6519089 -0.94619185 2.211632 -0.019052874 -0.33677673 -0.3530627 0.24506189 1.1414422 0.92261505 0.74338216 0.5324624 0.96184546 0.9317164 -1.1182535 0.05494072 -1.9542285 1.2551892 0.2547199 -0.39808488 -1.4320062 0.49729785 -0.7363497 -0.6623269 -1.2957529 -0.3172457 0.61795485 1.5508255 1.1306074 -0.97983176 -0.18271679 0.36857197 -1.6778176 1.3755994 1.5457202 0.51343656 -1.2705041 1.1171225 -0.49616873 2.0143378 1.3677424 0.7644598 0.2207585 -0.6885531 -1.0234263 -0.19163363 -1.4981792 -1.7313714 -0.60250926 0.87640655 0.027975582 1.5311254 -0.034453694 -0.44383234 0.051197514 -0.9832634 0.5961343 -0.5797426 0.3051437 1.3805513 0.49719983 0.24065283 1.6218262 -1.4024911 -0.5230223 -0.25329524 -0.32716355 -1.0949557 -0.095268466 -2.3484383 -1.9183766 0.33711407 0.46460494 1.0329179 0.64838123 0.35942292 0.02418419 0.75999993 -0.7293055 -0.23426677 -0.98804533 -0.00066334446 0.82756215
CTA 0.96143436 -1.9340136 1.069528 -2.1275787 0.6620972 -0.45867154 2.093105 -1.213579 0.092299126 -0.88033056 1.5195724 -0.61059916 -0.27353695 0.5836333 0.034240685 -1.046893 0.16905473 0.008466956 1.2963908 0.9576213 0.09810314 -1.6864467 -1.1668905 -1.8967324 1.3055301 -1.0168331 0.9937141 0.4848644 0.22182412 -1.6393164 -0.73177195 1.9373885 1.0203074 -0.62732846 0.47938702 -0.124652065 0.37550873 1.2470895 0.33650154 -0.7008768 1.0425469 -1.343724 0.2541829 0.61793107 -0.3306512 -0.26420033 -2.08111 2.0768974 0.3708594 -0.13443516 -1.4580355 0.29627004 1.3038388 -1.2260175 0.12754638 0.57561016 0.62156326 -1.303105 0.86659527 0.7989205 0.84874284 -1.6556888 -0.008585173 -0.85945696 -1.3809469 1.486729 -0.8708311 -0.111346215 -1.4152923 -0.8021735 -1.0350797 0.05369066 0.149303 0.11361955 1.7943021 -0.8819978 1.1105936 -1.2361522 -1.5070602 0.4720199 0.5997018 1.2266583 -1.8848532 1.7646785 -0.39904475 -0.44573742 0.98699856 0.38460347 -0.034999296 0.114802845 0.32603934 0.29283655 -0.7967602 1.3024123 0.7112416 1.2957458 -1.6583529 -0.43860412 -0.6341461 -1.20817
CGA -0.9320976 -0.46017256 0.10265413 -1.0139545 0.23400863 1.1324887 0.055478677 -0.45239338 -0.7567519 -1.6396884 2.0898166 -1.0732653 -1.6019572 -0.383516 -0.25785953 -1.9576694 1.960772 0.035999313 -0.37081012 -0.63572466 -1.9615295 -0.532946 2.1519377 0.20008472 -1.091857 -0.58865774 -0.10892917 0.7716984 0.43338993 0.49133673 -2.0643237 -0.47117168 0.23468818 -1.0852709 -1.3699526 -1.8548704 0.6311068 -1.735872 -0.57030034 2.2911792 1.4476925 -0.75920343 2.5220032 0.30343536 -0.085192494 0.9292021 -0.5621335 0.6209112 0.86389554 0.10013645 -0.07592898 -0.054790575 2.9646354 0.37371886 -0.3138516 -0.7782235 1.267382 1.9523764 0.20986973 0.652144 2.432253 -0.03957328 -0.6923773 1.2157266 -0.3626348 -0.53899854 0.120863646 0.9173841 1.578978 -0.3610925 0.6850435 -0.3680157 -0.17640051 -0.39950436 -1.5778092 -0.78158075 -0.80814296 1.2329229 1.0221205 -0.70110196 -0.3105309 -0.048946477 0.9124031 -0.6201107 0.45030862 1.6707073 -1.1169835 1.6200969 0.3631032 0.05079422 0.06437301 0.5017256 -0.71974534 1.21625 -0.60843694 -2.1656597 -0.8920305 -0.23899227 0.9341829 0.9731846
CGC -0.15422018 0.4080145 -0.8865072 -0.09509411 -0.14326917 2.506716 -0.7207199 -1.8034259 -0.67268944 -0.9521777 2.5390763 -2.263358 -1.7444013 0.17419238 -0.1325299 -1.8494155 0.460537 0.9860647 -1.4409715 0.34414694 -2.1862445 1.7214395 -0.8091235 0.34403777 -0.22780766 -0.2709554 0.24242242 -0.75212806 1.4342947 -0.21149667 -2.519856 -1.259068 0.105589665 -0.007995581 -0.58169496 0.76357967 1.5365329 -2.020901 -0.11940866 2.2637427 1.1200399 -0.4536469 0.96105814 0.66214174 -0.9149787 0.63801306 -0.48153025 -1.2917391 0.21045649 0.57323796 -0.27714792 -0.354872 1.3876355 0.060301553 1.217888 -0.25427178 0.73032093 0.6899762 0.5210641 0.09527984 0.051575676 0.37408775 -0.74011916 0.05111085 0.07388645 -0.2633839 -0.345626 -0.39218175 0.58727443 0.14351271 0.59832895 0.20882228 -1.1292397 -1.8501031 -2.8628058 0.5232909 -0.30458722 0.23355168 1.3754151 1.2856209 -0.062955715 0.80252886 2.0055716 -1.4787989 0.48558247 2.5408812 -2.9327223 -0.6369889 1.1066908 0.13746127 -1.9337934 -0.29967007 -0.59959906 0.50761473 -2.1809003 -1.6371025 -0.012428641 -0.63035685 -0.29951477 1.3042217
TAC 0.40152448 -2.2395005 0.6014112 1.5552754 0.7123108 0.36649084 -0.07407903 1.2293333 -0.18841334 0.10688099 -0.66416794 0.77296734 2.0481174 0.42498812 1.6567758 0.7682568 -2.0144866 0.83394426 1.43627 0.71427757 2.4419103 0.29518858 0.31235558 0.63782054 -0.43108404 2.2813015 2.0593119 1.045405 -1.5378433 2.234648 0.029429978 -0.03367052 -1.2424253 1.1036345 0.16442822 0.8522403 -2.4251974 -0.36518118 -0.6776945 -1.0311992 -1.5252465 0.19990489 1.6473993 0.6249943 0.17818613 1.2694896 0.75196767 -0.43440533 0.29578435 -2.740755 1.7022136 0.83964944 -1.000569 -1.9116652 -0.52997035 -0.099210784 0.5652131 0.25828215 -0.28448886 -0.9279499 0.17069748 0.57617104 -0.40387678 -0.46181065 -1.4875816 0.85940295 0.26124385 -0.3011653 1.1611644 0.3999709 -0.17581232 -0.49777156 -1.5000702 -0.95003265 -0.8061881 0.7511378 0.27793765 1.6769965 0.5291051 -1.0892065 0.31642222 -0.54411775 -1.8058733 -0.3398349 0.9645397 0.019656727 -1.9829755 0.43452242 -0.3568159 -2.4459543 0.69200766 -0.30284813 -2.00646 -0.54527336 -0.6640232 -0.044441517 -0.51173174 -0.8938058 -0.85639244 0.15346925
TCG 2.5476108 1.3662814 1.0346926 -0.7460269 0.22825177 0.17150581 0.25692979 -0.8960454 0.6689835 2.0907996 -1.0514706 -1.5879654 -1.0919645 -0.28818887 -1.7063638 -0.0022634384 -0.93436563 2.1037402 -1.3371291 -0.7729981 1.465003 1.4050277 1.9598597 -1.6932793 0.6023378 0.7727053 -1.3246984 0.25943366 0.7655107 1.4017924 0.6340437 1.6388003 0.27753004 -0.055980656 0.60728025 1.6260227 1.8318086 0.5692946 -1.9319763 -0.34304875 -1.5875559 -1.2406809 -0.35165158 1.1750451 -0.67716694 0.6307895 0.85100746 1.4679432 -0.932908 -0.40789074 -0.47316208 -0.31944636 1.0421753 -1.093798 -2.271563 -0.75836813 -0.4827059 1.2647355 0.34823278 -0.35795215 0.60841733 -0.14451805 1.044123 0.25407535 0.04010886 0.4291362 1.227907 1.6363623 -1.6389718 0.4666313 -1.4303442 1.7529893 -1.1554272 -0.47557044 -1.7036703 0.02363765 -0.4723606 -0.43651655 0.44366133 1.8959777 -0.48753586 -0.750762 -0.17435332 -1.9634742 1.6333419 -1.5510484 1.3948108 0.80703104 -0.7900217 0.88965535 -0.9800601 -0.29869616 0.40644723 -2.3518016 0.09209303 0.30117974 3.4413564 0.478593 -0.35195738 -0.2946358
ACG -1.2866864 0.99165374 1.7674919 0.9298068 -1.1457093 -0.8597015 -0.46737334 -0.8160672 -0.51961434 2.0406983 -2.0184236 -1.0556067 -1.5343581 -1.6376659 -1.4412754 -0.24134775 -0.3768262 -1.8637109 -1.1254503 -1.0295315 0.9916491 1.237687 2.2854717 -2.399145 0.47803128 0.48378772 -1.172726 -0.9252797 1.2874787 -1.4841242 -0.455506 2.5066543 -0.7749871 1.705565 0.20637889 -0.025910268 1.4832172 -0.67918384 -0.7743346 1.247223 -0.10341342 0.82416135 -1.3447644 0.41136628 0.29564586 1.5296595 0.8539256 0.53046256 -1.8233862 1.0494077 -0.91071534 0.23423871 -0.46435153 0.9181295 -0.51823455 -1.0927079 -0.96777946 -0.6596345 1.3008583 -0.9182986 0.333061 0.09704674 -0.48708403 -1.201711 2.873647 -0.6834153 0.15369838 0.6941456 0.5657 0.24733198 -1.7544518 1.7747859 -1.645998 0.24791002 -2.1656575 0.41031516 -0.12163816 -2.5969286 0.5820617 0.5724454 0.3004112 0.4709724 0.04436883 -1.9336631 0.540383 -1.6598927 1.0794865 -0.27756393 -2.3552094 0.034243405 -1.1191536 0.38291192 -0.6506978 -0.32641304 0.91535723 0.08957736 2.0545926 0.7707624 -0.68017817 0.031125588
CGT 0.33241093 1.5429016 -0.25562364 -1.8088603 0.27780318 0.46969745 0.9408506 0.321104 -1.0796584 -1.7661923 2.2808557 -2.4661114 -1.5609783 -1.3590319 0.81566715 -2.690136 0.958958 -0.9963179 1.0085438 -1.9695349 -1.1787175 -0.37257832 0.7294907 -0.36496976 -1.687313 -0.04537012 0.6015473 -0.9741177 -0.56097376 -0.15281832 -1.1590166 -1.369009 0.30543596 -0.8330329 0.06902784 -1.0058548 -0.37472174 -0.68333375 -0.26975936 1.3472494 -0.030079372 -2.0101154 1.7718046 1.816641 0.04104489 0.27039197 -0.22024725 -0.38100204 -1.0128108 0.66179353 -1.17657 2.286072 1.3158534 -0.07672341 0.84622794 -1.4047321 -0.5744671 -0.9531743 -0.6318207 0.15141012 0.18689175 0.5616427 -1.9805061 0.90206873 -0.20927253 -0.95910776 0.7307266 1.1763009 1.5879532 -1.4589727 1.4084057 -0.3835142 -1.0242442 0.5930016 -1.8533304 0.45747694 -0.78063715 1.2394342 1.4442023 -0.19988911 1.4699916 -0.55031407 2.1700516 -0.28688022 0.8745828 2.005326 -2.6078715 -0.6206059 1.6261115 -0.5343622 -1.402626 0.63853425 0.39758214 0.9474741 -0.32888818 -0.21401948 -0.8883316 -1.2933441 0.85051537 0.053561702
